digraph Tree {
node [shape=box, style="rounded", color="black", fontname="helvetica"] ;
edge [fontname="helvetica"] ;
0 [label="Price <= 120.0\nsquared_error = 1786.5\nsamples = 248\nvalue = 123.6"] ;
1 [label="Price <= 84.0\nsquared_error = 419.6\nsamples = 113\nvalue = 83.3"] ;
0 -> 1 [labeldistance=2.5, labelangle=45, headlabel="True"] ;
2 [label="Price <= 65.5\nsquared_error = 95.8\nsamples = 56\nvalue = 66.4"] ;
1 -> 2 ;
3 [label="Price <= 58.0\nsquared_error = 21.5\nsamples = 26\nvalue = 56.3"] ;
2 -> 3 ;
4 [label="Price <= 53.5\nsquared_error = 5.4\nsamples = 14\nvalue = 53.3"] ;
3 -> 4 ;
5 [label="KG_Yes <= 0.5\nsquared_error = 1.4\nsamples = 7\nvalue = 51.4"] ;
4 -> 5 ;
6 [label="ShelveLoc <= 4.0\nsquared_error = 0.2\nsamples = 3\nvalue = 50.3"] ;
5 -> 6 ;
7 [label="squared_error = 0.0\nsamples = 2\nvalue = 51.0"] ;
6 -> 7 ;
8 [label="squared_error = 0.0\nsamples = 1\nvalue = 50.0"] ;
6 -> 8 ;
9 [label="Population <= 144.0\nsquared_error = 0.2\nsamples = 4\nvalue = 52.4"] ;
5 -> 9 ;
10 [label="squared_error = 0.0\nsamples = 2\nvalue = 53.0"] ;
9 -> 10 ;
11 [label="squared_error = 0.0\nsamples = 2\nvalue = 52.0"] ;
9 -> 11 ;
12 [label="Price <= 55.5\nsquared_error = 0.9\nsamples = 7\nvalue = 55.5"] ;
4 -> 12 ;
13 [label="Price <= 54.5\nsquared_error = 0.2\nsamples = 4\nvalue = 54.7"] ;
12 -> 13 ;
14 [label="squared_error = 0.0\nsamples = 2\nvalue = 54.0"] ;
13 -> 14 ;
15 [label="squared_error = 0.0\nsamples = 2\nvalue = 55.0"] ;
13 -> 15 ;
16 [label="Age <= 41.0\nsquared_error = 0.2\nsamples = 3\nvalue = 56.3"] ;
12 -> 16 ;
17 [label="squared_error = 0.0\nsamples = 1\nvalue = 57.0"] ;
16 -> 17 ;
18 [label="squared_error = 0.0\nsamples = 2\nvalue = 56.0"] ;
16 -> 18 ;
19 [label="Price <= 61.5\nsquared_error = 1.7\nsamples = 12\nvalue = 62.0"] ;
3 -> 19 ;
20 [label="CompPrice <= 144.5\nsquared_error = 0.7\nsamples = 4\nvalue = 60.2"] ;
19 -> 20 ;
21 [label="Price <= 59.5\nsquared_error = 0.2\nsamples = 2\nvalue = 59.5"] ;
20 -> 21 ;
22 [label="squared_error = 0.0\nsamples = 1\nvalue = 59.0"] ;
21 -> 22 ;
23 [label="squared_error = 0.0\nsamples = 1\nvalue = 60.0"] ;
21 -> 23 ;
24 [label="squared_error = 0.0\nsamples = 2\nvalue = 61.0"] ;
20 -> 24 ;
25 [label="Price <= 62.5\nsquared_error = 0.4\nsamples = 8\nvalue = 62.7"] ;
19 -> 25 ;
26 [label="squared_error = 0.0\nsamples = 2\nvalue = 62.0"] ;
25 -> 26 ;
27 [label="Sales <= 20.6\nsquared_error = 0.1\nsamples = 6\nvalue = 63.2"] ;
25 -> 27 ;
28 [label="squared_error = 0.0\nsamples = 5\nvalue = 63.0"] ;
27 -> 28 ;
29 [label="squared_error = 0.0\nsamples = 1\nvalue = 64.0"] ;
27 -> 29 ;
30 [label="Price <= 74.5\nsquared_error = 23.1\nsamples = 30\nvalue = 73.7"] ;
2 -> 30 ;
31 [label="Price <= 70.0\nsquared_error = 7.2\nsamples = 16\nvalue = 70.5"] ;
30 -> 31 ;
32 [label="CompPrice <= 121.5\nsquared_error = 0.4\nsamples = 6\nvalue = 67.2"] ;
31 -> 32 ;
33 [label="Price <= 68.5\nsquared_error = 0.2\nsamples = 2\nvalue = 68.5"] ;
32 -> 33 ;
34 [label="squared_error = 0.0\nsamples = 1\nvalue = 68.0"] ;
33 -> 34 ;
35 [label="squared_error = 0.0\nsamples = 1\nvalue = 69.0"] ;
33 -> 35 ;
36 [label="squared_error = 0.0\nsamples = 4\nvalue = 67.0"] ;
32 -> 36 ;
37 [label="Price <= 72.5\nsquared_error = 1.4\nsamples = 10\nvalue = 72.4"] ;
31 -> 37 ;
38 [label="Price <= 71.5\nsquared_error = 0.2\nsamples = 4\nvalue = 71.3"] ;
37 -> 38 ;
39 [label="squared_error = 0.0\nsamples = 3\nvalue = 71.0"] ;
38 -> 39 ;
40 [label="squared_error = 0.0\nsamples = 1\nvalue = 72.0"] ;
38 -> 40 ;
41 [label="Price <= 73.5\nsquared_error = 0.2\nsamples = 6\nvalue = 73.5"] ;
37 -> 41 ;
42 [label="squared_error = 0.0\nsamples = 3\nvalue = 73.0"] ;
41 -> 42 ;
43 [label="squared_error = 0.0\nsamples = 3\nvalue = 74.0"] ;
41 -> 43 ;
44 [label="Price <= 78.5\nsquared_error = 10.2\nsamples = 14\nvalue = 78.4"] ;
30 -> 44 ;
45 [label="Advertising <= 11.0\nsquared_error = 0.7\nsamples = 7\nvalue = 75.7"] ;
44 -> 45 ;
46 [label="Price <= 75.5\nsquared_error = 0.2\nsamples = 6\nvalue = 75.5"] ;
45 -> 46 ;
47 [label="squared_error = 0.0\nsamples = 3\nvalue = 75.0"] ;
46 -> 47 ;
48 [label="squared_error = 0.0\nsamples = 3\nvalue = 76.0"] ;
46 -> 48 ;
49 [label="squared_error = 0.0\nsamples = 1\nvalue = 78.0"] ;
45 -> 49 ;
50 [label="Advertising <= 8.0\nsquared_error = 2.4\nsamples = 7\nvalue = 81.6"] ;
44 -> 50 ;
51 [label="Price <= 82.5\nsquared_error = 0.2\nsamples = 5\nvalue = 82.6"] ;
50 -> 51 ;
52 [label="squared_error = 0.0\nsamples = 2\nvalue = 82.0"] ;
51 -> 52 ;
53 [label="squared_error = 0.0\nsamples = 3\nvalue = 83.0"] ;
51 -> 53 ;
54 [label="Education <= 11.0\nsquared_error = 0.2\nsamples = 2\nvalue = 79.3"] ;
50 -> 54 ;
55 [label="squared_error = 0.0\nsamples = 1\nvalue = 79.0"] ;
54 -> 55 ;
56 [label="squared_error = 0.0\nsamples = 1\nvalue = 80.0"] ;
54 -> 56 ;
57 [label="Price <= 102.5\nsquared_error = 94.4\nsamples = 57\nvalue = 102.5"] ;
1 -> 57 ;
58 [label="Price <= 93.0\nsquared_error = 27.8\nsamples = 27\nvalue = 94.0"] ;
57 -> 58 ;
59 [label="Price <= 88.5\nsquared_error = 5.1\nsamples = 10\nvalue = 88.3"] ;
58 -> 59 ;
60 [label="Advertising <= 4.5\nsquared_error = 0.8\nsamples = 6\nvalue = 86.0"] ;
59 -> 60 ;
61 [label="squared_error = 0.0\nsamples = 2\nvalue = 85.0"] ;
60 -> 61 ;
62 [label="Income <= 42.0\nsquared_error = 0.2\nsamples = 4\nvalue = 86.6"] ;
60 -> 62 ;
63 [label="squared_error = 0.0\nsamples = 2\nvalue = 87.0"] ;
62 -> 63 ;
64 [label="squared_error = 0.0\nsamples = 2\nvalue = 86.0"] ;
62 -> 64 ;
65 [label="Age <= 41.5\nsquared_error = 0.2\nsamples = 4\nvalue = 90.3"] ;
59 -> 65 ;
66 [label="squared_error = 0.0\nsamples = 2\nvalue = 90.0"] ;
65 -> 66 ;
67 [label="squared_error = 0.0\nsamples = 2\nvalue = 91.0"] ;
65 -> 67 ;
68 [label="Price <= 98.0\nsquared_error = 5.1\nsamples = 17\nvalue = 98.0"] ;
58 -> 68 ;
69 [label="Price <= 95.5\nsquared_error = 0.5\nsamples = 7\nvalue = 95.5"] ;
68 -> 69 ;
70 [label="squared_error = 0.0\nsamples = 4\nvalue = 95.0"] ;
69 -> 70 ;
71 [label="Income <= 67.0\nsquared_error = 0.2\nsamples = 3\nvalue = 96.2"] ;
69 -> 71 ;
72 [label="squared_error = 0.0\nsamples = 2\nvalue = 96.0"] ;
71 -> 72 ;
73 [label="squared_error = 0.0\nsamples = 1\nvalue = 97.0"] ;
71 -> 73 ;
74 [label="Price <= 100.5\nsquared_error = 1.1\nsamples = 10\nvalue = 99.7"] ;
68 -> 74 ;
75 [label="Education <= 10.5\nsquared_error = 0.1\nsamples = 6\nvalue = 99.1"] ;
74 -> 75 ;
76 [label="squared_error = 0.0\nsamples = 1\nvalue = 100.0"] ;
75 -> 76 ;
77 [label="squared_error = 0.0\nsamples = 5\nvalue = 99.0"] ;
75 -> 77 ;
78 [label="CompPrice <= 178.0\nsquared_error = 0.2\nsamples = 4\nvalue = 101.2"] ;
74 -> 78 ;
79 [label="squared_error = 0.0\nsamples = 3\nvalue = 101.0"] ;
78 -> 79 ;
80 [label="squared_error = 0.0\nsamples = 1\nvalue = 102.0"] ;
78 -> 80 ;
81 [label="Price <= 110.5\nsquared_error = 22.9\nsamples = 30\nvalue = 110.6"] ;
57 -> 81 ;
82 [label="Price <= 106.5\nsquared_error = 5.6\nsamples = 14\nvalue = 106.2"] ;
81 -> 82 ;
83 [label="Price <= 104.5\nsquared_error = 0.6\nsamples = 9\nvalue = 104.3"] ;
82 -> 83 ;
84 [label="Price <= 103.5\nsquared_error = 0.2\nsamples = 4\nvalue = 103.7"] ;
83 -> 84 ;
85 [label="squared_error = 0.0\nsamples = 1\nvalue = 103.0"] ;
84 -> 85 ;
86 [label="squared_error = 0.0\nsamples = 3\nvalue = 104.0"] ;
84 -> 86 ;
87 [label="squared_error = 0.0\nsamples = 5\nvalue = 105.0"] ;
83 -> 87 ;
88 [label="Price <= 108.5\nsquared_error = 0.4\nsamples = 5\nvalue = 108.9"] ;
82 -> 88 ;
89 [label="squared_error = 0.0\nsamples = 2\nvalue = 108.0"] ;
88 -> 89 ;
90 [label="Advertising <= 8.0\nsquared_error = 0.1\nsamples = 3\nvalue = 109.2"] ;
88 -> 90 ;
91 [label="squared_error = 0.0\nsamples = 1\nvalue = 110.0"] ;
90 -> 91 ;
92 [label="squared_error = 0.0\nsamples = 2\nvalue = 109.0"] ;
90 -> 92 ;
93 [label="Price <= 115.5\nsquared_error = 9.5\nsamples = 16\nvalue = 114.0"] ;
81 -> 93 ;
94 [label="Price <= 113.0\nsquared_error = 1.8\nsamples = 12\nvalue = 112.2"] ;
93 -> 94 ;
95 [label="Price <= 111.5\nsquared_error = 0.2\nsamples = 8\nvalue = 111.5"] ;
94 -> 95 ;
96 [label="squared_error = 0.0\nsamples = 4\nvalue = 111.0"] ;
95 -> 96 ;
97 [label="squared_error = 0.0\nsamples = 4\nvalue = 112.0"] ;
95 -> 97 ;
98 [label="Income <= 57.5\nsquared_error = 0.2\nsamples = 4\nvalue = 114.5"] ;
94 -> 98 ;
99 [label="squared_error = 0.0\nsamples = 2\nvalue = 115.0"] ;
98 -> 99 ;
100 [label="squared_error = 0.0\nsamples = 2\nvalue = 114.0"] ;
98 -> 100 ;
101 [label="Education <= 15.5\nsquared_error = 1.1\nsamples = 4\nvalue = 118.4"] ;
93 -> 101 ;
102 [label="Price <= 118.5\nsquared_error = 0.1\nsamples = 3\nvalue = 118.8"] ;
101 -> 102 ;
103 [label="squared_error = 0.0\nsamples = 1\nvalue = 118.0"] ;
102 -> 103 ;
104 [label="squared_error = 0.0\nsamples = 2\nvalue = 119.0"] ;
102 -> 104 ;
105 [label="squared_error = 0.0\nsamples = 1\nvalue = 116.0"] ;
101 -> 105 ;
106 [label="Price <= 159.0\nsquared_error = 499.7\nsamples = 135\nvalue = 156.4"] ;
0 -> 106 [labeldistance=2.5, labelangle=-45, headlabel="False"] ;
107 [label="Price <= 139.0\nsquared_error = 128.1\nsamples = 75\nvalue = 140.3"] ;
106 -> 107 ;
108 [label="Price <= 128.0\nsquared_error = 24.6\nsamples = 35\nvalue = 129.4"] ;
107 -> 108 ;
109 [label="Price <= 123.5\nsquared_error = 3.7\nsamples = 13\nvalue = 124.1"] ;
108 -> 109 ;
110 [label="Price <= 121.5\nsquared_error = 0.7\nsamples = 5\nvalue = 121.8"] ;
109 -> 110 ;
111 [label="squared_error = 0.0\nsamples = 2\nvalue = 121.0"] ;
110 -> 111 ;
112 [label="Income <= 68.0\nsquared_error = 0.2\nsamples = 3\nvalue = 122.5"] ;
110 -> 112 ;
113 [label="squared_error = 0.0\nsamples = 2\nvalue = 123.0"] ;
112 -> 113 ;
114 [label="squared_error = 0.0\nsamples = 1\nvalue = 122.0"] ;
112 -> 114 ;
115 [label="Price <= 125.5\nsquared_error = 0.6\nsamples = 8\nvalue = 125.4"] ;
109 -> 115 ;
116 [label="CompPrice <= 129.5\nsquared_error = 0.2\nsamples = 4\nvalue = 124.8"] ;
115 -> 116 ;
117 [label="squared_error = 0.0\nsamples = 2\nvalue = 124.0"] ;
116 -> 117 ;
118 [label="squared_error = 0.0\nsamples = 2\nvalue = 125.0"] ;
116 -> 118 ;
119 [label="Age <= 33.5\nsquared_error = 0.1\nsamples = 4\nvalue = 126.1"] ;
115 -> 119 ;
120 [label="squared_error = 0.0\nsamples = 3\nvalue = 126.0"] ;
119 -> 120 ;
121 [label="squared_error = 0.0\nsamples = 1\nvalue = 127.0"] ;
119 -> 121 ;
122 [label="Price <= 133.5\nsquared_error = 8.6\nsamples = 22\nvalue = 132.8"] ;
108 -> 122 ;
123 [label="Price <= 131.5\nsquared_error = 2.2\nsamples = 14\nvalue = 131.0"] ;
122 -> 123 ;
124 [label="Income <= 78.5\nsquared_error = 0.5\nsamples = 7\nvalue = 129.8"] ;
123 -> 124 ;
125 [label="Price <= 130.5\nsquared_error = 0.2\nsamples = 5\nvalue = 130.2"] ;
124 -> 125 ;
126 [label="squared_error = 0.0\nsamples = 3\nvalue = 130.0"] ;
125 -> 126 ;
127 [label="squared_error = 0.0\nsamples = 2\nvalue = 131.0"] ;
125 -> 127 ;
128 [label="squared_error = 0.0\nsamples = 2\nvalue = 129.0"] ;
124 -> 128 ;
129 [label="Price <= 132.5\nsquared_error = 0.2\nsamples = 7\nvalue = 132.5"] ;
123 -> 129 ;
130 [label="squared_error = 0.0\nsamples = 3\nvalue = 132.0"] ;
129 -> 130 ;
131 [label="squared_error = 0.0\nsamples = 4\nvalue = 133.0"] ;
129 -> 131 ;
132 [label="Population <= 316.0\nsquared_error = 1.9\nsamples = 8\nvalue = 136.3"] ;
122 -> 132 ;
133 [label="Advertising <= 9.0\nsquared_error = 0.2\nsamples = 5\nvalue = 137.8"] ;
132 -> 133 ;
134 [label="squared_error = 0.0\nsamples = 1\nvalue = 137.0"] ;
133 -> 134 ;
135 [label="squared_error = 0.0\nsamples = 4\nvalue = 138.0"] ;
133 -> 135 ;
136 [label="Price <= 135.5\nsquared_error = 0.5\nsamples = 3\nvalue = 135.3"] ;
132 -> 136 ;
137 [label="Sales <= 16.2\nsquared_error = 0.2\nsamples = 2\nvalue = 134.8"] ;
136 -> 137 ;
138 [label="squared_error = 0.0\nsamples = 1\nvalue = 135.0"] ;
137 -> 138 ;
139 [label="squared_error = 0.0\nsamples = 1\nvalue = 134.0"] ;
137 -> 139 ;
140 [label="squared_error = 0.0\nsamples = 1\nvalue = 136.0"] ;
136 -> 140 ;
141 [label="Price <= 149.5\nsquared_error = 36.3\nsamples = 40\nvalue = 149.2"] ;
107 -> 141 ;
142 [label="Price <= 143.5\nsquared_error = 6.3\nsamples = 22\nvalue = 144.2"] ;
141 -> 142 ;
143 [label="Price <= 141.5\nsquared_error = 0.8\nsamples = 9\nvalue = 141.3"] ;
142 -> 143 ;
144 [label="Price <= 140.5\nsquared_error = 0.2\nsamples = 7\nvalue = 140.8"] ;
143 -> 144 ;
145 [label="squared_error = 0.0\nsamples = 2\nvalue = 140.0"] ;
144 -> 145 ;
146 [label="squared_error = 0.0\nsamples = 5\nvalue = 141.0"] ;
144 -> 146 ;
147 [label="KG_Yes <= 0.5\nsquared_error = 0.2\nsamples = 2\nvalue = 142.5"] ;
143 -> 147 ;
148 [label="squared_error = 0.0\nsamples = 1\nvalue = 143.0"] ;
147 -> 148 ;
149 [label="squared_error = 0.0\nsamples = 1\nvalue = 142.0"] ;
147 -> 149 ;
150 [label="Price <= 146.5\nsquared_error = 1.6\nsamples = 13\nvalue = 145.9"] ;
142 -> 150 ;
151 [label="Price <= 145.5\nsquared_error = 0.2\nsamples = 8\nvalue = 145.1"] ;
150 -> 151 ;
152 [label="Education <= 10.5\nsquared_error = 0.1\nsamples = 6\nvalue = 144.9"] ;
151 -> 152 ;
153 [label="squared_error = 0.0\nsamples = 1\nvalue = 144.0"] ;
152 -> 153 ;
154 [label="squared_error = 0.0\nsamples = 5\nvalue = 145.0"] ;
152 -> 154 ;
155 [label="squared_error = 0.0\nsamples = 2\nvalue = 146.0"] ;
151 -> 155 ;
156 [label="Price <= 147.5\nsquared_error = 0.5\nsamples = 5\nvalue = 147.5"] ;
150 -> 156 ;
157 [label="squared_error = 0.0\nsamples = 3\nvalue = 147.0"] ;
156 -> 157 ;
158 [label="Advertising <= 15.0\nsquared_error = 0.2\nsamples = 2\nvalue = 148.3"] ;
156 -> 158 ;
159 [label="squared_error = 0.0\nsamples = 1\nvalue = 149.0"] ;
158 -> 159 ;
160 [label="squared_error = 0.0\nsamples = 1\nvalue = 148.0"] ;
158 -> 160 ;
161 [label="Price <= 154.5\nsquared_error = 9.9\nsamples = 18\nvalue = 154.9"] ;
141 -> 161 ;
162 [label="Age <= 30.5\nsquared_error = 1.4\nsamples = 9\nvalue = 151.4"] ;
161 -> 162 ;
163 [label="Sales <= 9.6\nsquared_error = 0.5\nsamples = 5\nvalue = 152.4"] ;
162 -> 163 ;
164 [label="CompPrice <= 131.0\nsquared_error = 0.2\nsamples = 2\nvalue = 153.5"] ;
163 -> 164 ;
165 [label="squared_error = 0.0\nsamples = 1\nvalue = 153.0"] ;
164 -> 165 ;
166 [label="squared_error = 0.0\nsamples = 1\nvalue = 154.0"] ;
164 -> 166 ;
167 [label="squared_error = 0.0\nsamples = 3\nvalue = 152.0"] ;
163 -> 167 ;
168 [label="Advertising <= 7.0\nsquared_error = 0.2\nsamples = 4\nvalue = 150.4"] ;
162 -> 168 ;
169 [label="squared_error = 0.0\nsamples = 2\nvalue = 150.0"] ;
168 -> 169 ;
170 [label="squared_error = 0.0\nsamples = 2\nvalue = 151.0"] ;
168 -> 170 ;
171 [label="Price <= 156.5\nsquared_error = 1.0\nsamples = 9\nvalue = 157.4"] ;
161 -> 171 ;
172 [label="Income <= 45.0\nsquared_error = 0.2\nsamples = 2\nvalue = 155.3"] ;
171 -> 172 ;
173 [label="squared_error = 0.0\nsamples = 1\nvalue = 156.0"] ;
172 -> 173 ;
174 [label="squared_error = 0.0\nsamples = 1\nvalue = 155.0"] ;
172 -> 174 ;
175 [label="CompPrice <= 113.0\nsquared_error = 0.2\nsamples = 7\nvalue = 157.8"] ;
171 -> 175 ;
176 [label="squared_error = 0.0\nsamples = 1\nvalue = 157.0"] ;
175 -> 176 ;
177 [label="squared_error = 0.0\nsamples = 6\nvalue = 158.0"] ;
175 -> 177 ;
178 [label="Price <= 180.5\nsquared_error = 130.6\nsamples = 60\nvalue = 179.4"] ;
106 -> 178 ;
179 [label="Price <= 172.0\nsquared_error = 44.8\nsamples = 32\nvalue = 170.8"] ;
178 -> 179 ;
180 [label="Price <= 167.0\nsquared_error = 11.4\nsamples = 19\nvalue = 165.5"] ;
179 -> 180 ;
181 [label="Price <= 163.5\nsquared_error = 3.6\nsamples = 15\nvalue = 163.7"] ;
180 -> 181 ;
182 [label="Price <= 161.5\nsquared_error = 0.8\nsamples = 9\nvalue = 162.1"] ;
181 -> 182 ;
183 [label="Urban_Yes <= 0.5\nsquared_error = 0.2\nsamples = 2\nvalue = 160.5"] ;
182 -> 183 ;
184 [label="squared_error = 0.0\nsamples = 1\nvalue = 160.0"] ;
183 -> 184 ;
185 [label="squared_error = 0.0\nsamples = 1\nvalue = 161.0"] ;
183 -> 185 ;
186 [label="Price <= 162.5\nsquared_error = 0.2\nsamples = 7\nvalue = 162.4"] ;
182 -> 186 ;
187 [label="squared_error = 0.0\nsamples = 5\nvalue = 162.0"] ;
186 -> 187 ;
188 [label="squared_error = 0.0\nsamples = 2\nvalue = 163.0"] ;
186 -> 188 ;
189 [label="Sales <= 19.0\nsquared_error = 0.7\nsamples = 6\nvalue = 165.5"] ;
181 -> 189 ;
190 [label="squared_error = 0.0\nsamples = 4\nvalue = 166.0"] ;
189 -> 190 ;
191 [label="Advertising <= 10.5\nsquared_error = 0.2\nsamples = 2\nvalue = 164.3"] ;
189 -> 191 ;
192 [label="squared_error = 0.0\nsamples = 1\nvalue = 164.0"] ;
191 -> 192 ;
193 [label="squared_error = 0.0\nsamples = 1\nvalue = 165.0"] ;
191 -> 193 ;
194 [label="Population <= 116.5\nsquared_error = 0.9\nsamples = 4\nvalue = 170.2"] ;
180 -> 194 ;
195 [label="squared_error = 0.0\nsamples = 1\nvalue = 168.0"] ;
194 -> 195 ;
196 [label="Advertising <= 7.5\nsquared_error = 0.2\nsamples = 3\nvalue = 170.6"] ;
194 -> 196 ;
197 [label="squared_error = 0.0\nsamples = 1\nvalue = 171.0"] ;
196 -> 197 ;
198 [label="squared_error = 0.0\nsamples = 2\nvalue = 170.0"] ;
196 -> 198 ;
199 [label="Price <= 176.5\nsquared_error = 4.0\nsamples = 13\nvalue = 177.7"] ;
179 -> 199 ;
200 [label="CompPrice <= 133.0\nsquared_error = 1.5\nsamples = 3\nvalue = 174.0"] ;
199 -> 200 ;
201 [label="squared_error = 0.0\nsamples = 1\nvalue = 176.0"] ;
200 -> 201 ;
202 [label="Education <= 11.5\nsquared_error = 0.2\nsamples = 2\nvalue = 173.3"] ;
200 -> 202 ;
203 [label="squared_error = 0.0\nsamples = 1\nvalue = 174.0"] ;
202 -> 203 ;
204 [label="squared_error = 0.0\nsamples = 1\nvalue = 173.0"] ;
202 -> 204 ;
205 [label="Price <= 178.5\nsquared_error = 0.8\nsamples = 10\nvalue = 178.6"] ;
199 -> 205 ;
206 [label="Price <= 177.5\nsquared_error = 0.2\nsamples = 3\nvalue = 177.2"] ;
205 -> 206 ;
207 [label="squared_error = 0.0\nsamples = 2\nvalue = 177.0"] ;
206 -> 207 ;
208 [label="squared_error = 0.0\nsamples = 1\nvalue = 178.0"] ;
206 -> 208 ;
209 [label="CompPrice <= 121.0\nsquared_error = 0.1\nsamples = 7\nvalue = 179.1"] ;
205 -> 209 ;
210 [label="squared_error = 0.0\nsamples = 1\nvalue = 180.0"] ;
209 -> 210 ;
211 [label="squared_error = 0.0\nsamples = 6\nvalue = 179.0"] ;
209 -> 211 ;
212 [label="Price <= 191.5\nsquared_error = 27.0\nsamples = 28\nvalue = 190.3"] ;
178 -> 212 ;
213 [label="Price <= 185.5\nsquared_error = 7.0\nsamples = 17\nvalue = 186.8"] ;
212 -> 213 ;
214 [label="ShelveLoc <= 2.0\nsquared_error = 2.5\nsamples = 4\nvalue = 183.4"] ;
213 -> 214 ;
215 [label="Price <= 181.5\nsquared_error = 0.2\nsamples = 2\nvalue = 181.7"] ;
214 -> 215 ;
216 [label="squared_error = 0.0\nsamples = 1\nvalue = 181.0"] ;
215 -> 216 ;
217 [label="squared_error = 0.0\nsamples = 1\nvalue = 182.0"] ;
215 -> 217 ;
218 [label="Advertising <= 7.5\nsquared_error = 0.2\nsamples = 2\nvalue = 184.8"] ;
214 -> 218 ;
219 [label="squared_error = 0.0\nsamples = 1\nvalue = 185.0"] ;
218 -> 219 ;
220 [label="squared_error = 0.0\nsamples = 1\nvalue = 184.0"] ;
218 -> 220 ;
221 [label="Price <= 188.5\nsquared_error = 2.5\nsamples = 13\nvalue = 188.2"] ;
213 -> 221 ;
222 [label="Price <= 186.5\nsquared_error = 0.2\nsamples = 8\nvalue = 187.0"] ;
221 -> 222 ;
223 [label="squared_error = 0.0\nsamples = 1\nvalue = 186.0"] ;
222 -> 223 ;
224 [label="Sales <= 21.2\nsquared_error = 0.1\nsamples = 7\nvalue = 187.1"] ;
222 -> 224 ;
225 [label="squared_error = 0.0\nsamples = 6\nvalue = 187.0"] ;
224 -> 225 ;
226 [label="squared_error = 0.0\nsamples = 1\nvalue = 188.0"] ;
224 -> 226 ;
227 [label="Urban_Yes <= 0.5\nsquared_error = 0.6\nsamples = 5\nvalue = 190.0"] ;
221 -> 227 ;
228 [label="squared_error = 0.0\nsamples = 1\nvalue = 191.0"] ;
227 -> 228 ;
229 [label="Education <= 15.5\nsquared_error = 0.2\nsamples = 4\nvalue = 189.6"] ;
227 -> 229 ;
230 [label="squared_error = 0.0\nsamples = 2\nvalue = 190.0"] ;
229 -> 230 ;
231 [label="squared_error = 0.0\nsamples = 2\nvalue = 189.0"] ;
229 -> 231 ;
232 [label="Price <= 194.5\nsquared_error = 7.9\nsamples = 11\nvalue = 196.0"] ;
212 -> 232 ;
233 [label="Age <= 36.0\nsquared_error = 0.2\nsamples = 4\nvalue = 192.2"] ;
232 -> 233 ;
234 [label="squared_error = 0.0\nsamples = 1\nvalue = 193.0"] ;
233 -> 234 ;
235 [label="squared_error = 0.0\nsamples = 3\nvalue = 192.0"] ;
233 -> 235 ;
236 [label="Income <= 65.5\nsquared_error = 0.9\nsamples = 7\nvalue = 197.9"] ;
232 -> 236 ;
237 [label="Price <= 198.5\nsquared_error = 0.2\nsamples = 4\nvalue = 198.4"] ;
236 -> 237 ;
238 [label="squared_error = 0.0\nsamples = 2\nvalue = 198.0"] ;
237 -> 238 ;
239 [label="squared_error = 0.0\nsamples = 2\nvalue = 199.0"] ;
237 -> 239 ;
240 [label="Sales <= 24.5\nsquared_error = 0.2\nsamples = 3\nvalue = 196.7"] ;
236 -> 240 ;
241 [label="squared_error = 0.0\nsamples = 2\nvalue = 197.0"] ;
240 -> 241 ;
242 [label="squared_error = 0.0\nsamples = 1\nvalue = 196.0"] ;
240 -> 242 ;
}